{"learner":{"attributes":{"best_iteration":"2","best_score":"0.691304347826087"},"feature_names":["f0","f1","f2","f3","f4","f5","f6","f7","f8","f9","f10","f11","f12"],"feature_types":[],"gradient_booster":{"model":{"cats":{"enc":[],"feature_segments":[],"sorted_idx":[]},"gbtree_model_param":{"num_parallel_tree":"1","num_trees":"23"},"iteration_indptr":[0,1,2,3,4,5,6,7,8,9,10,11,12,13,14,15,16,17,18,19,20,21,22,23],"tree_info":[0,0,0,0,0,0,0,0,0,0,0,0,0,0,0,0,0,0,0,0,0,0,0],"trees":[{"base_weights":[-2.6687765E-2,-3.8584515E-1,5.285063E-1,-0E0,-5.2044254E-2,-5.9269466E-3,4.552206E-2,-2.5328228E-2,2.2175143E-2],"categories":[],"categories_nodes":[],"categories_segments":[],"categories_sizes":[],"default_left":[0,0,0,0,0,0,0,0,0],"id":0,"left_children":[1,3,5,7,-1,-1,-1,-1,-1],"loss_changes":[1.553748E1,1.2273103E1,8.085324E0,7.6453314E0,0E0,0E0,0E0,0E0,0E0],"parents":[2147483647,0,0,1,1,2,2,3,3],"right_children":[2,4,6,8,-1,-1,-1,-1,-1],"split_conditions":[6.5E1,1.51E2,2E0,1E0,-5.2044254E-2,-5.9269466E-3,4.552206E-2,-2.5328228E-2,2.2175143E-2],"split_indices":[0,7,2,8,0,0,0,0,0],"split_type":[0,0,0,0,0,0,0,0,0],"sum_hessian":[7.423276E1,4.599138E1,2.8241379E1,3.0068966E1,1.5922414E1,1.0508621E1,1.773276E1,1.3758621E1,1.6310345E1],"tree_param":{"num_deleted":"0","num_feature":"13","num_nodes":"9","size_leaf_vector":"1"}},{"base_weights":[6.38448E-2,5.8906907E-1,-5.356566E-1,1.103497E-3,5.094978E-2,-7.783671E-1,-0E0,-4.913283E-2,-2.0046119E-2],"categories":[],"categories_nodes":[],"categories_segments":[],"categories_sizes":[],"default_left":[0,0,0,0,0,0,0,0,0],"id":1,"left_children":[1,3,5,-1,-1,7,-1,-1,-1],"loss_changes":[2.4445179E1,9.590995E0,4.751156E0,0E0,0E0,4.352665E-1,0E0,0E0,0E0],"parents":[2147483647,0,0,1,1,2,2,5,5],"right_children":[2,4,6,-1,-1,8,-1,-1,-1],"split_conditions":[1.26E2,8.030208E-1,3E0,1.103497E-3,5.094978E-2,1.71E2,-0E0,-4.913283E-2,-2.0046119E-2],"split_indices":[7,9,2,0,0,7,0,0,0],"split_type":[0,0,0,0,0,0,0,0,0],"sum_hessian":[7.354609E1,3.9664646E1,3.3881443E1,1.8513794E1,2.1150852E1,2.2835209E1,1.1046232E1,1.1875878E1,1.09593315E1],"tree_param":{"num_deleted":"0","num_feature":"13","num_nodes":"9","size_leaf_vector":"1"}},{"base_weights":[-1.574867E-1,3.065129E-1,-6.914751E-1,-2.0101482E-2,7.028886E-1,-1.6896196E-3,-6.5474175E-2,1.3210105E-2,5.1049788E-2],"categories":[],"categories_nodes":[],"categories_segments":[],"categories_sizes":[],"default_left":[0,0,0,0,0,0,0,0,0],"id":2,"left_children":[1,3,5,-1,7,-1,-1,-1,-1],"loss_changes":[1.7868998E1,1.1427767E1,1.285174E1,0E0,2.395854E0,0E0,0E0,0E0,0E0],"parents":[2147483647,0,0,1,1,2,2,4,4],"right_children":[2,4,6,-1,8,-1,-1,-1,-1],"split_conditions":[1.26E2,3.21E2,2E0,-2.0101482E-2,8.030208E-1,-1.6896196E-3,-6.5474175E-2,1.3210105E-2,5.1049788E-2],"split_indices":[7,4,11,0,9,0,0,0,0],"split_type":[0,0,0,0,0,0,0,0,0],"sum_hessian":[6.763149E1,3.61421E1,3.1489391E1,1.2502775E1,2.3639328E1,1.6668856E1,1.4820536E1,1.2136013E1,1.1503314E1],"tree_param":{"num_deleted":"0","num_feature":"13","num_nodes":"9","size_leaf_vector":"1"}},{"base_weights":[3.4424167E-2,-6.56738E-1,3.7089485E-1,-5.242894E-2,-1.1444608E-2,-1.3695721E-1,7.241632E-1,1.976488E-2,-3.2626E-2,2.0511838E-2,5.3886544E-2],"categories":[],"categories_nodes":[],"categories_segments":[],"categories_sizes":[],"default_left":[0,0,0,0,0,0,0,0,0,0,0],"id":3,"left_children":[1,3,5,-1,-1,7,9,-1,-1,-1,-1],"loss_changes":[1.8179506E1,3.1304598E0,1.006271E1,0E0,0E0,6.952146E0,1.9635506E0,0E0,0E0,0E0,0E0],"parents":[2147483647,0,0,1,1,2,2,5,5,6,6],"right_children":[2,4,6,-1,-1,8,10,-1,-1,-1,-1],"split_conditions":[2.89E2,2.23E2,2E0,-5.242894E-2,-1.1444608E-2,4.05E2,6.8E1,1.976488E-2,-3.2626E-2,2.0511838E-2,5.3886544E-2],"split_indices":[4,4,2,0,0,4,0,0,0,0,0],"split_type":[0,0,0,0,0,0,0,0,0,0,0],"sum_hessian":[7.469242E1,2.3346155E1,5.1346268E1,1.0061272E1,1.3284884E1,2.0986185E1,3.0360083E1,1.0078304E1,1.090788E1,1.9119202E1,1.1240882E1],"tree_param":{"num_deleted":"0","num_feature":"13","num_nodes":"11","size_leaf_vector":"1"}},{"base_weights":[-1.3247217E-1,3.0695167E-1,-7.8075415E-1,-1.8594986E-2,7.307854E-1,-1.0905094E-2,-6.1894488E-2,1.15304915E-2,4.7969293E-2],"categories":[],"categories_nodes":[],"categories_segments":[],"categories_sizes":[],"default_left":[0,0,0,0,0,0,0,0,0],"id":4,"left_children":[1,3,5,-1,7,-1,-1,-1,-1],"loss_changes":[2.2267904E1,1.3977276E1,6.856676E0,0E0,2.334199E0,0E0,0E0,0E0,0E0],"parents":[2147483647,0,0,1,1,2,2,4,4],"right_children":[2,4,6,-1,8,-1,-1,-1,-1],"split_conditions":[1.34E2,3.21E2,2E0,-1.8594986E-2,1.01E2,-1.0905094E-2,-6.1894488E-2,1.15304915E-2,4.7969293E-2],"split_indices":[7,4,11,0,7,0,0,0,0],"split_type":[0,0,0,0,0,0,0,0,0],"sum_hessian":[7.365434E1,4.406655E1,2.9587791E1,1.6578405E1,2.7488148E1,1.5077752E1,1.451004E1,1.0568711E1,1.6919436E1],"tree_param":{"num_deleted":"0","num_feature":"13","num_nodes":"9","size_leaf_vector":"1"}},{"base_weights":[6.8931885E-2,5.0756574E-1,-6.493391E-1,-9.425502E-3,8.582013E-1,-4.604178E-2,-1.7071621E-3,2.656205E-2,6.1722167E-2],"categories":[],"categories_nodes":[],"categories_segments":[],"categories_sizes":[],"default_left":[0,0,0,0,0,0,0,0,0],"id":5,"left_children":[1,3,5,-1,7,-1,-1,-1,-1],"loss_changes":[2.6239336E1,1.3375109E1,4.68981E0,0E0,2.1710548E0,0E0,0E0,0E0,0E0],"parents":[2147483647,0,0,1,1,2,2,4,4],"right_children":[2,4,6,-1,8,-1,-1,-1,-1],"split_conditions":[1.34E2,3.06E2,6.5E1,-9.425502E-3,6.6E1,-4.604178E-2,-1.7071621E-3,2.656205E-2,6.1722167E-2],"split_indices":[7,4,0,0,0,0,0,0,0],"split_type":[0,0,0,0,0,0,0,0,0],"sum_hessian":[7.9416954E1,5.0102917E1,2.931404E1,1.6615963E1,3.3486954E1,1.9085083E1,1.0228957E1,2.1208921E1,1.2278031E1],"tree_param":{"num_deleted":"0","num_feature":"13","num_nodes":"9","size_leaf_vector":"1"}},{"base_weights":[7.435853E-2,-4.9354278E-2,2.795405E-1,5.025769E-1,-3.4274463E-2,7.872747E-1,-9.3809713E-4,9.077378E-3,5.1307805E-2],"categories":[],"categories_nodes":[],"categories_segments":[],"categories_sizes":[],"default_left":[0,0,0,0,0,0,0,0,0],"id":6,"left_children":[1,-1,3,5,-1,7,-1,-1,-1],"loss_changes":[1.688985E1,0E0,1.484191E1,8.6262045E0,0E0,4.298395E0,0E0,0E0,0E0],"parents":[2147483647,0,0,2,2,3,3,5,5],"right_children":[2,-1,4,6,-1,8,-1,-1,-1],"split_conditions":[2.23E2,-4.9354278E-2,5E2,1.42E2,-3.4274463E-2,3.21E2,-9.3809713E-4,9.077378E-3,5.1307805E-2],"split_indices":[4,0,4,7,0,4,0,0,0],"split_type":[0,0,0,0,0,0,0,0,0],"sum_hessian":[7.464182E1,1.0461926E1,6.417989E1,5.333071E1,1.0849183E1,3.4454388E1,1.8876322E1,1.1332315E1,2.3122072E1],"tree_param":{"num_deleted":"0","num_feature":"13","num_nodes":"9","size_leaf_vector":"1"}},{"base_weights":[1.0600628E-1,4.8114827E-1,-4.7548112E-1,-4.4425703E-3,8.266119E-1,-2.1366312E-3,-4.4393454E-2,2.267032E-2,5.806854E-2],"categories":[],"categories_nodes":[],"categories_segments":[],"categories_sizes":[],"default_left":[0,0,0,0,0,0,0,0,0],"id":7,"left_children":[1,3,5,-1,7,-1,-1,-1,-1],"loss_changes":[1.7160267E1,9.977717E0,4.902665E0,0E0,1.9697628E0,0E0,0E0,0E0,0E0],"parents":[2147483647,0,0,1,1,2,2,4,4],"right_children":[2,4,6,-1,8,-1,-1,-1,-1],"split_conditions":[1.34E2,3.21E2,2E0,-4.4425703E-3,6.6E1,-2.1366312E-3,-4.4393454E-2,2.267032E-2,5.806854E-2],"split_indices":[7,4,11,0,0,0,0,0,0],"split_type":[0,0,0,0,0,0,0,0,0],"sum_hessian":[7.4555664E1,4.6051125E1,2.8504543E1,1.7392519E1,2.8658604E1,1.5577568E1,1.2926974E1,1.6483952E1,1.2174652E1],"tree_param":{"num_deleted":"0","num_feature":"13","num_nodes":"9","size_leaf_vector":"1"}},{"base_weights":[5.140499E-2,1.9634096E-1,-3.2569196E-2,4.61369E-1,-2.1804555E-1,-1.3003232E-3,7.738431E-1,5.62487E-3,-2.531517E-2,2.148874E-2,4.796735E-2],"categories":[],"categories_nodes":[],"categories_segments":[],"categories_sizes":[],"default_left":[0,0,0,0,0,0,0,0,0,0,0],"id":8,"left_children":[1,3,-1,5,7,-1,9,-1,-1,-1,-1],"loss_changes":[7.753978E0,7.462066E0,0E0,6.6621037E0,2.7862234E0,0E0,1.2043667E-1,0E0,0E0,0E0,0E0],"parents":[2147483647,0,0,1,1,3,3,4,4,6,6],"right_children":[2,4,-1,6,8,-1,10,-1,-1,-1,-1],"split_conditions":[5E2,1.42E2,-3.2569196E-2,2.89E2,1E0,-1.3003232E-3,1.09E2,5.62487E-3,-2.531517E-2,2.148874E-2,4.796735E-2],"split_indices":[4,7,0,4,10,0,7,0,0,0,0],"split_type":[0,0,0,0,0,0,0,0,0,0,0],"sum_hessian":[7.384683E1,6.3005856E1,1.0840978E1,3.902597E1,2.3979885E1,1.5337308E1,2.3688662E1,1.09306755E1,1.3049211E1,1.15657425E1,1.2122919E1],"tree_param":{"num_deleted":"0","num_feature":"13","num_nodes":"11","size_leaf_vector":"1"}},{"base_weights":[-3.4718554E-2,3.8213405E-1,-4.9310178E-1,-7.268533E-3,7.2564274E-1,-0E0,-4.7688045E-2,1.0934102E-2,5.0237875E-2],"categories":[],"categories_nodes":[],"categories_segments":[],"categories_sizes":[],"default_left":[0,0,0,0,0,0,0,0,0],"id":9,"left_children":[1,3,5,-1,7,-1,-1,-1,-1],"loss_changes":[1.4974581E1,7.824271E0,8.844967E0,0E0,2.540619E0,0E0,0E0,0E0,0E0],"parents":[2147483647,0,0,1,1,2,2,4,4],"right_children":[2,4,6,-1,8,-1,-1,-1,-1],"split_conditions":[1.26E2,5.3E1,2E0,-7.268533E-3,1E0,-0E0,-4.7688045E-2,1.0934102E-2,5.0237875E-2],"split_indices":[7,0,11,0,5,0,0,0,0],"split_type":[0,0,0,0,0,0,0,0,0],"sum_hessian":[7.410618E1,3.841425E1,3.5691933E1,1.5030658E1,2.3383593E1,1.7893612E1,1.779832E1,1.0205509E1,1.3178083E1],"tree_param":{"num_deleted":"0","num_feature":"13","num_nodes":"9","size_leaf_vector":"1"}},{"base_weights":[6.2481776E-2,4.3043104E-1,-3.7835452E-1,5.594985E-2,3.7295666E-2,-6.601053E-1,8.171904E-3,-6.3789696E-3,1.2519898E-2,-5.0401937E-2,-1.0659951E-2],"categories":[],"categories_nodes":[],"categories_segments":[],"categories_sizes":[],"default_left":[0,0,0,0,0,0,0,0,0,0,0],"id":10,"left_children":[1,3,5,7,-1,9,-1,-1,-1,-1,-1],"loss_changes":[1.3435345E1,4.893278E0,6.133847E0,9.710821E-1,0E0,2.9151592E0,0E0,0E0,0E0,0E0,0E0],"parents":[2147483647,0,0,1,1,2,2,3,3,5,5],"right_children":[2,4,6,8,-1,10,-1,-1,-1,-1,-1],"split_conditions":[1.26E2,8.030208E-1,3E0,2E0,3.7295666E-2,1.54E2,8.171904E-3,-6.3789696E-3,1.2519898E-2,-5.0401937E-2,-1.0659951E-2],"split_indices":[7,9,2,2,0,3,0,0,0,0,0],"split_type":[0,0,0,0,0,0,0,0,0,0,0],"sum_hessian":[7.866067E1,4.351869E1,3.5141975E1,2.1700048E1,2.1818642E1,2.3439005E1,1.1702971E1,1.0194449E1,1.1505599E1,1.113781E1,1.2301195E1],"tree_param":{"num_deleted":"0","num_feature":"13","num_nodes":"11","size_leaf_vector":"1"}},{"base_weights":[1.6754193E-2,4.0632537E-1,-3.972715E-1,-7.85342E-3,7.657024E-1,-0E0,-3.9999884E-2,9.344656E-3,5.726949E-2],"categories":[],"categories_nodes":[],"categories_segments":[],"categories_sizes":[],"default_left":[0,0,0,0,0,0,0,0,0],"id":11,"left_children":[1,3,5,-1,7,-1,-1,-1,-1],"loss_changes":[1.2112592E1,8.49313E0,5.516274E0,0E0,4.366949E0,0E0,0E0,0E0,0E0],"parents":[2147483647,0,0,1,1,2,2,4,4],"right_children":[2,4,6,-1,8,-1,-1,-1,-1],"split_conditions":[1.26E2,1E0,2E0,-7.85342E-3,8.352799E-1,-0E0,-3.9999884E-2,9.344656E-3,5.726949E-2],"split_indices":[7,1,11,0,9,0,0,0,0],"split_type":[0,0,0,0,0,0,0,0,0],"sum_hessian":[7.10674E1,3.7256405E1,3.3810993E1,1.44063015E1,2.2850103E1,1.836069E1,1.5450306E1,1.0755443E1,1.2094661E1],"tree_param":{"num_deleted":"0","num_feature":"13","num_nodes":"9","size_leaf_vector":"1"}},{"base_weights":[-5.704034E-2,4.063952E-1,-6.469723E-1,-1.6966909E-3,7.187403E-1,-1.0399902E-2,-4.892262E-2,9.642984E-3,5.2676868E-2],"categories":[],"categories_nodes":[],"categories_segments":[],"categories_sizes":[],"default_left":[0,0,0,0,0,0,0,0,0],"id":12,"left_children":[1,3,5,-1,7,-1,-1,-1,-1],"loss_changes":[2.0534224E1,6.0980387E0,3.8381052E0,0E0,3.377162E0,0E0,0E0,0E0,0E0],"parents":[2147483647,0,0,1,1,2,2,4,4],"right_children":[2,4,6,-1,8,-1,-1,-1,-1],"split_conditions":[1.24E2,1E0,2E0,-1.6966909E-3,8.030208E-1,-1.0399902E-2,-4.892262E-2,9.642984E-3,5.2676868E-2],"split_indices":[7,1,11,0,9,0,0,0,0],"split_type":[0,0,0,0,0,0,0,0,0],"sum_hessian":[7.074475E1,3.949397E1,3.1250784E1,1.6464722E1,2.3029247E1,1.5494714E1,1.575607E1,1.0765283E1,1.2263966E1],"tree_param":{"num_deleted":"0","num_feature":"13","num_nodes":"9","size_leaf_vector":"1"}},{"base_weights":[-6.197754E-2,-3.088157E-1,2.9831344E-2,-3.7207577E-2,3.695381E-2,1.9863132E-2,-1.6279656E-2],"categories":[],"categories_nodes":[],"categories_segments":[],"categories_sizes":[],"default_left":[0,0,0,0,0,0,0],"id":13,"left_children":[1,3,-1,-1,5,-1,-1],"loss_changes":[1.1886326E1,8.544279E0,0E0,0E0,4.3947344E0,0E0,0E0],"parents":[2147483647,0,0,1,1,4,4],"right_children":[2,4,-1,-1,6,-1,-1],"split_conditions":[7E1,1E0,2.9831344E-2,-3.7207577E-2,1.26E2,1.9863132E-2,-1.6279656E-2],"split_indices":[0,1,0,0,7,0,0],"split_type":[0,0,0,0,0,0,0],"sum_hessian":[6.9734215E1,5.20484E1,1.768581E1,2.2660175E1,2.9388226E1,1.5335258E1,1.4052967E1],"tree_param":{"num_deleted":"0","num_feature":"13","num_nodes":"7","size_leaf_vector":"1"}},{"base_weights":[5.1599197E-2,-2.9474637E-1,4.1556615E-1,6.7298273E-3,-3.8345635E-2,3.7592854E-2,-1.7578758E-2],"categories":[],"categories_nodes":[],"categories_segments":[],"categories_sizes":[],"default_left":[0,0,0,0,0,0,0],"id":14,"left_children":[1,3,5,-1,-1,-1,-1],"loss_changes":[9.520936E0,8.210955E0,1.0320541E1,0E0,0E0,0E0,0E0],"parents":[2147483647,0,0,1,1,2,2],"right_children":[2,4,6,-1,-1,-1,-1],"split_conditions":[3.69E2,2.43E2,5.04E2,6.7298273E-3,-3.8345635E-2,3.7592854E-2,-1.7578758E-2],"split_indices":[4,4,4,0,0,0,0],"split_type":[0,0,0,0,0,0,0],"sum_hessian":[7.110547E1,3.592571E1,3.5179756E1,1.9010399E1,1.691531E1,2.4938925E1,1.0240832E1],"tree_param":{"num_deleted":"0","num_feature":"13","num_nodes":"7","size_leaf_vector":"1"}},{"base_weights":[-4.2885482E-2,-2.7504796E-1,3.41119E-2,-6.988077E-1,1.4810339E-1,-5.5825748E-2,-1.30294515E-2,3.1614948E-2,-9.994883E-3],"categories":[],"categories_nodes":[],"categories_segments":[],"categories_sizes":[],"default_left":[0,0,0,0,0,0,0,0,0],"id":15,"left_children":[1,3,-1,5,7,-1,-1,-1,-1],"loss_changes":[1.2335407E1,1.0645624E1,0E0,4.0853243E0,5.426191E0,0E0,0E0,0E0,0E0],"parents":[2147483647,0,0,1,1,3,3,4,4],"right_children":[2,4,-1,6,8,-1,-1,-1,-1],"split_conditions":[7E1,1E0,3.41119E-2,1.47E2,1E0,-5.5825748E-2,-1.30294515E-2,3.1614948E-2,-9.994883E-3],"split_indices":[0,8,0,3,10,0,0,0,0],"split_type":[0,0,0,0,0,0,0,0,0],"sum_hessian":[7.0254E1,5.4678516E1,1.5575484E1,2.725903E1,2.7419487E1,1.1787029E1,1.5472E1,1.1383626E1,1.603586E1],"tree_param":{"num_deleted":"0","num_feature":"13","num_nodes":"9","size_leaf_vector":"1"}},{"base_weights":[-2.8734758E-2,-6.0240364E-1,2.9893818E-1,-1.06644435E-2,-4.1971076E-2,-4.293013E-3,5.878543E-1,1.5971681E-2,3.744619E-2],"categories":[],"categories_nodes":[],"categories_segments":[],"categories_sizes":[],"default_left":[0,0,0,0,0,0,0,0,0],"id":16,"left_children":[1,3,5,-1,-1,-1,7,-1,-1],"loss_changes":[1.3582065E1,1.5591564E0,5.358776E0,0E0,0E0,0E0,1.4256668E-1,0E0,0E0],"parents":[2147483647,0,0,1,1,2,2,6,6],"right_children":[2,4,6,-1,-1,-1,8,-1,-1],"split_conditions":[2E0,5.6945837E-1,5.3E1,-1.06644435E-2,-4.1971076E-2,-4.293013E-3,1.0155826E0,1.5971681E-2,3.744619E-2],"split_indices":[2,9,0,0,0,0,9,0,0],"split_type":[0,0,0,0,0,0,0,0,0],"sum_hessian":[6.753114E1,2.4495333E1,4.303581E1,1.1509456E1,1.2985877E1,1.8316141E1,2.4719667E1,1.2672209E1,1.204746E1],"tree_param":{"num_deleted":"0","num_feature":"13","num_nodes":"9","size_leaf_vector":"1"}},{"base_weights":[6.7289814E-2,-3.10731E-1,3.102858E-1,9.257592E-3,-3.174269E-2,-1.4765154E-2,6.091738E-1,9.202183E-3,4.859979E-2],"categories":[],"categories_nodes":[],"categories_segments":[],"categories_sizes":[],"default_left":[0,0,0,0,0,0,0,0,0],"id":17,"left_children":[1,3,5,-1,-1,-1,7,-1,-1],"loss_changes":[6.780326E0,5.0014358E0,8.745251E0,0E0,0E0,0E0,3.9451513E0,0E0,0E0],"parents":[2147483647,0,0,1,1,2,2,6,6],"right_children":[2,4,6,-1,-1,-1,8,-1,-1],"split_conditions":[5.477523E-1,1E0,1.46E2,9.257592E-3,-3.174269E-2,-1.4765154E-2,5.8E1,9.202183E-3,4.859979E-2],"split_indices":[9,6,3,0,0,0,0,0,0],"split_type":[0,0,0,0,0,0,0,0,0],"sum_hessian":[6.971668E1,2.6255978E1,4.3460705E1,1.0107373E1,1.6148605E1,1.3816883E1,2.964382E1,1.5672478E1,1.3971342E1],"tree_param":{"num_deleted":"0","num_feature":"13","num_nodes":"9","size_leaf_vector":"1"}},{"base_weights":[-0E0,-3.431529E-2,1.4481376E-1,-2.0973217E-1,4.2562103E-1,-2.719896E-2,1.282361E-3,6.452636E-1,-1.5347808E-3,1.1476542E-2,4.6307538E-2],"categories":[],"categories_nodes":[],"categories_segments":[],"categories_sizes":[],"default_left":[0,0,0,0,0,0,0,0,0,0,0],"id":18,"left_children":[1,-1,3,5,7,-1,-1,9,-1,-1,-1],"loss_changes":[7.2695465E0,0E0,6.428899E0,2.475861E0,3.942577E0,0E0,0E0,1.9220486E0,0E0,0E0,0E0],"parents":[2147483647,0,0,2,2,3,3,4,4,7,7],"right_children":[2,-1,4,6,8,-1,-1,10,-1,-1,-1],"split_conditions":[2.23E2,-3.431529E-2,2E0,5.477523E-1,1.34E2,-2.719896E-2,1.282361E-3,8.8370734E-1,-1.5347808E-3,1.1476542E-2,4.6307538E-2],"split_indices":[4,0,2,9,7,0,0,9,0,0,0],"split_type":[0,0,0,0,0,0,0,0,0,0,0],"sum_hessian":[7.038311E1,1.0686867E1,5.9696247E1,2.582074E1,3.3875507E1,1.0463825E1,1.53569145E1,2.304882E1,1.0826685E1,1.1476779E1,1.15720415E1],"tree_param":{"num_deleted":"0","num_feature":"13","num_nodes":"11","size_leaf_vector":"1"}},{"base_weights":[6.549763E-3,2.0097908E-1,-3.8026083E-1,-1.2898706E-2,5.3407896E-1,-0E0,-3.413342E-2,7.454522E-3,4.5331966E-2],"categories":[],"categories_nodes":[],"categories_segments":[],"categories_sizes":[],"default_left":[0,0,0,0,0,0,0,0,0],"id":19,"left_children":[1,3,5,-1,7,-1,-1,-1,-1],"loss_changes":[5.5404005E0,8.154561E0,3.058762E0,0E0,3.5941029E0,0E0,0E0,0E0,0E0],"parents":[2147483647,0,0,1,1,2,2,4,4],"right_children":[2,4,6,-1,8,-1,-1,-1,-1],"split_conditions":[1.51E2,2E0,2E0,-1.2898706E-2,4.12E2,-0E0,-3.413342E-2,7.454522E-3,4.5331966E-2],"split_indices":[7,2,11,0,4,0,0,0,0],"split_type":[0,0,0,0,0,0,0,0,0],"sum_hessian":[7.082791E1,4.863508E1,2.2192831E1,2.0012032E1,2.8623049E1,1.0123096E1,1.2069736E1,1.6113962E1,1.2509085E1],"tree_param":{"num_deleted":"0","num_feature":"13","num_nodes":"9","size_leaf_vector":"1"}},{"base_weights":[-2.5255926E-2,-2.7338902E-2,1.0248769E-1,4.0817082E-1,-2.3015635E-1,-3.925351E-3,3.5968866E-2,-3.628917E-2,6.3532772E-3],"categories":[],"categories_nodes":[],"categories_segments":[],"categories_sizes":[],"default_left":[0,0,0,0,0,0,0,0,0],"id":20,"left_children":[1,-1,3,5,7,-1,-1,-1,-1],"loss_changes":[5.1309333E0,0E0,6.2506094E0,5.2980595E0,5.552522E0,0E0,0E0,0E0,0E0],"parents":[2147483647,0,0,2,2,3,3,4,4],"right_children":[2,-1,4,6,8,-1,-1,-1,-1],"split_conditions":[1.25E2,-2.7338902E-2,1.58E2,6E0,1.79E2,-3.925351E-3,3.5968866E-2,-3.628917E-2,6.3532772E-3],"split_indices":[3,0,3,12,3,0,0,0,0],"split_type":[0,0,0,0,0,0,0,0,0],"sum_hessian":[6.999988E1,1.3251846E1,5.6748035E1,3.0119102E1,2.6628931E1,1.1704277E1,1.8414825E1,1.0875682E1,1.5753248E1],"tree_param":{"num_deleted":"0","num_feature":"13","num_nodes":"9","size_leaf_vector":"1"}},{"base_weights":[3.767934E-2,4.4779608E-1,-4.6687406E-1,-4.8960773E-3,7.0638627E-1,-3.4054567E-3,-3.7646517E-2,1.1417131E-2,4.657444E-2],"categories":[],"categories_nodes":[],"categories_segments":[],"categories_sizes":[],"default_left":[0,0,0,0,0,0,0,0,0],"id":21,"left_children":[1,3,5,-1,7,-1,-1,-1,-1],"loss_changes":[1.5074284E1,6.180872E0,3.1611795E0,0E0,2.0566902E0,0E0,0E0,0E0,0E0],"parents":[2147483647,0,0,1,1,2,2,4,4],"right_children":[2,4,6,-1,8,-1,-1,-1,-1],"split_conditions":[1.26E2,3.02E2,2E0,-4.8960773E-3,1E2,-3.4054567E-3,-3.7646517E-2,1.1417131E-2,4.657444E-2],"split_indices":[7,4,11,0,7,0,0,0,0],"split_type":[0,0,0,0,0,0,0,0,0],"sum_hessian":[6.887417E1,3.866335E1,3.021082E1,1.2208386E1,2.6454964E1,1.4383792E1,1.5827028E1,1.0470039E1,1.5984923E1],"tree_param":{"num_deleted":"0","num_feature":"13","num_nodes":"9","size_leaf_vector":"1"}},{"base_weights":[-2.5829101E-2,-3.5544473E-1,2.1974939E-1,-2.837711E-2,5.936623E-4,-7.6909894E-3,4.4137156E-1,2.3414488E-3,3.4505617E-2],"categories":[],"categories_nodes":[],"categories_segments":[],"categories_sizes":[],"default_left":[0,0,0,0,0,0,0,0,0],"id":22,"left_children":[1,3,5,-1,-1,-1,7,-1,-1],"loss_changes":[6.0897293E0,2.8288713E0,3.7478411E0,0E0,0E0,0E0,2.2804537E0,0E0,0E0],"parents":[2147483647,0,0,1,1,2,2,6,6],"right_children":[2,4,6,-1,-1,-1,8,-1,-1],"split_conditions":[1E0,1.68E2,6E0,-2.837711E-2,5.936623E-4,-7.6909894E-3,1E0,2.3414488E-3,3.4505617E-2],"split_indices":[1,3,12,0,0,0,8,0,0],"split_type":[0,0,0,0,0,0,0,0,0],"sum_hessian":[7.046346E1,3.0571552E1,3.9891907E1,1.9552519E1,1.10190325E1,1.4241699E1,2.5650208E1,1.1614463E1,1.4035744E1],"tree_param":{"num_deleted":"0","num_feature":"13","num_nodes":"9","size_leaf_vector":"1"}}]},"name":"gbtree"},"learner_model_param":{"base_score":"[5E-1]","boost_from_average":"1","num_class":"0","num_feature":"13","num_target":"1"},"objective":{"name":"binary:logistic","reg_loss_param":{"scale_pos_weight":"3.17241383"}}},"version":[3,2,0]}